tree
version=v2
num_class=1
num_tree_per_iteration=1
label_index=0
max_feature_idx=27
objective=regression
feature_names=Column_0 Column_1 Column_2 Column_3 Column_4 Column_5 Column_6 Column_7 Column_8 Column_9 Column_10 Column_11 Column_12 Column_13 Column_14 Column_15 Column_16 Column_17 Column_18 Column_19 Column_20 Column_21 Column_22 Column_23 Column_24 Column_25 Column_26 Column_27
feature_infos=[0.27500000000000002:6.6950000000000003] [-2.4169999999999998:2.4300000000000002] [-1.7430000000000001:1.7430000000000001] [0.019:5.7000000000000002] [-1.7430000000000001:1.7430000000000001] [0.159:4.1900000000000004] [-2.9410000000000003:2.9700000000000002] [-1.7409999999999999:1.7409999999999999] [0:2.173] [0.19:5.1929999999999996] [-2.9039999999999999:2.9089999999999998] [-1.742:1.7430000000000001] [0:2.2149999999999999] [0.26400000000000001:6.5229999999999997] [-2.7280000000000002:2.7269999999999999] [-1.742:1.742] [0:2.548] [0.36499999999999999:6.0679999999999996] [-2.4950000000000001:2.496] [-1.74:1.7430000000000001] [0:3.1019999999999999] [0.17199999999999999:13.097999999999999] [0.41899999999999998:7.3920000000000003] [0.46100000000000002:3.6819999999999999] [0.38400000000000001:6.5829999999999993] [0.093000000000000013:7.8600000000000003] [0.38900000000000001:4.5430000000000001] [0.48899999999999999:4.3159999999999998]
tree_sizes=2484 2532 2524 2524 2527 2510 2538 2531 2547

Tree=0
num_leaves=31
num_cat=0
split_feature=25 26 27 25 25 24 22 5 5 27 26 27 25 26 27 24 3 25 13 3 22 19 5 24 4 4 25 24 13 24
split_gain=64.2638 41.1203 38.5382 15.7445 17.6357 13.1388 20.9834 8.97069 8.36848 6.94986 6.92699 6.62141 6.49419 5.50946 5.46418 8.41181 4.47175 4.33248 4.05326 3.78403 3.60298 3.83289 3.54533 3.34893 3.17171 3.41713 3.15454 3.16484 3.07026 3.59655
threshold=1.2815000000000001 0.78050000000000008 0.90450000000000019 0.98450000000000015 0.6785000000000001 1.0265000000000002 1.0445000000000002 0.82550000000000001 1.0195000000000003 0.9225000000000001 0.86950000000000016 0.78850000000000009 0.62350000000000005 0.88850000000000018 0.88950000000000007 1.1225000000000003 1.9205000000000003 0.98950000000000016 1.3835000000000004 1.8335000000000004 0.94750000000000012 -0.96449999999999991 1.3365000000000002 0.71850000000000014 1.2535000000000001 -0.27149999999999996 0.58650000000000013 0.74550000000000016 0.96150000000000013 0.75150000000000006
decision_type=2 2 2 2 2 2 2 2 2 2 2 2 2 2 2 2 2 2 2 2 2 2 2 2 2 2 2 2 2 2
left_child=1 7 3 4 28 6 -4 23 13 22 11 -6 -7 -5 20 -16 17 -14 -19 -17 -2 -22 26 -1 25 -8 27 -9 29 -3
right_child=14 2 5 8 10 12 24 9 -10 -11 -12 -13 16 -15 15 19 -18 18 -20 -21 21 -23 -24 -25 -26 -27 -28 -29 -30 -31
leaf_value=0.52569237744062003 0.52042998804716734 0.5422175113742802 0.51538920413460376 0.51981816153682081 0.54510850939454336 0.52481117997776638 0.53024021149375444 0.53098095223449515 0.54359999985354279 0.50431428556782854 0.54912120966902689 0.5308360246982633 0.54009109081946971 0.53374466531466402 0.51296357466735465 0.52530193988881624 0.52566845223449521 0.52869852202103051 0.54378796977835486 0.51133182942747768 0.51585274710629003 0.53764761890116186 0.54466516276081101 0.51861746405193609 0.52135974011328312 0.54153233068061046 0.5359689618268213 0.51383809509163803 0.54156918752861283 0.52867325992680292
leaf_count=283 121 62 307 129 277 161 135 75 112 22 751 115 457 158 422 324 96 203 57 57 26 90 57 409 44 133 139 42 102 234
internal_value=0 0.0542306 0.105429 0.200071 0.245911 -0.00982764 -0.123749 -0.121899 0.0230276 0.0124264 0.309038 0.201286 0.062572 -0.0674425 -0.221242 -0.260621 0.0989092 0.126047 0.022989 -0.152904 -0.0878192 0.0381084 0.0506125 -0.186927 0.0588864 0.0997399 0.000392854 -0.120601 0.0646202 0.0130618
internal_count=5600 4560 3533 1940 1541 1593 619 1027 399 335 1143 392 974 287 1040 803 813 717 260 381 237 116 313 692 312 268 256 117 398 296
shrinkage=1


Tree=1
num_leaves=31
num_cat=0
split_feature=25 26 25 25 3 5 22 5 26 22 22 26 22 3 26 24 9 25 3 5 24 26 19 13 9 19 24 5 23 3
split_gain=57.998 37.1842 19.7978 29.3277 9.48741 8.47208 4.98385 4.82022 5.37321 4.63142 4.75234 4.4306 5.04589 3.95124 3.55227 3.31417 3.18017 3.17337 3.09025 3.05593 2.88688 2.87323 2.94715 2.86761 2.80621 2.51941 2.4774 2.33827 2.33 2.64844
threshold=1.2815000000000001 0.77650000000000008 0.62350000000000005 0.98950000000000016 1.6175000000000004 0.82550000000000001 1.0445000000000002 0.88150000000000006 1.0375000000000003 1.0025000000000002 0.84950000000000014 0.97650000000000003 0.78450000000000009 0.97650000000000003 0.94950000000000012 0.71850000000000014 0.89250000000000018 2.0390000000000006 1.1435000000000002 1.5755000000000001 1.7450000000000003 1.1205000000000003 0.62900000000000011 0.73250000000000004 0.81850000000000012 1.0425000000000002 1.1005000000000003 0.98050000000000004 0.98050000000000004 0.33650000000000008
decision_type=2 2 2 2 2 2 2 2 2 2 2 2 2 2 2 2 2 2 2 2 2 2 2 2 2 2 2 2 2 2
left_child=1 5 19 4 7 15 11 18 -9 10 -5 24 -13 -7 27 25 -15 -8 -4 -3 23 -16 -23 -6 -2 28 -14 -11 -1 -30
right_child=6 2 3 9 20 13 17 8 -10 14 -12 12 26 16 21 -17 -18 -19 -20 -21 -22 22 -24 -25 -26 -27 -28 -29 29 -31
leaf_value=-0.01758896773276122 -0.015886550797865943 -0.0045506583784849907 0.010059530599865803 0.0012560363238056501 0.010203735999177012 0.0051373209014083402 -0.0028051813905553302 0.016193213175583934 0.0081649257771430478 -0.012061795704769639 -0.0085845859800006315 -0.0013398051506183187 -0.019440598974625273 -0.012316036035742941 0.011501728870519777 -0.012021098123457198 0.0041094512381452198 -0.013578079881206637 0.0031045699778657694 0.0081468347173470727 -0.01396370530128479 -0.0035369677724791508 0.011944816227663649 -0.00088550306459855756 0.00014402270317077638 -0.014215654288900309 -0.012234684433599916 0.0080025848001241684 0.014099996422345823 -0.003008757403184628
leaf_count=23 39 534 688 216 89 198 258 636 310 53 284 61 300 79 123 399 47 93 208 52 28 102 44 169 91 58 198 20 26 174
internal_value=0 0.051519 0.0995015 0.132645 0.195152 -0.118427 -0.21018 0.221463 0.271248 -0.0253308 -0.0866687 -0.259589 -0.29826 0.0146523 0.0643445 -0.181835 -0.123781 -0.113191 0.1689 -0.0684784 0.0256992 0.117436 0.0225755 0.0587971 -0.093303 -0.0986461 -0.331512 -0.131294 -0.0503561 -0.0156924
internal_count=5600 4560 3556 2970 2128 1004 1040 1842 946 842 500 689 559 324 342 680 126 351 896 586 286 269 146 258 130 281 498 73 223 200
shrinkage=0.05


Tree=2
num_leaves=31
num_cat=0
split_feature=27 26 24 22 5 3 5 22 27 26 26 22 22 22 24 26 26 27 5 18 18 27 24 24 22 1 4 26 13 19
split_gain=36.8254 45.6778 22.3028 23.6857 10.0962 6.83244 6.69139 4.7165 5.52377 4.67596 4.03497 3.38164 3.36074 4.61598 3.31797 3.28495 3.25824 3.15948 3.0864 2.92354 2.78007 2.70737 2.68146 2.67363 3.04152 2.66607 2.61054 3.84724 2.54227 2.52315
threshold=0.90250000000000019 0.81150000000000011 1.0265000000000002 1.0445000000000002 0.82050000000000012 1.9205000000000003 0.89650000000000007 1.0355000000000001 0.83850000000000013 1.3665 1.2195000000000003 1.5530000000000002 1.0465000000000002 0.74450000000000016 0.78250000000000008 0.77250000000000008 0.89850000000000019 1.0885000000000002 1.3665 -0.80349999999999988 0.037500000000000012 0.73350000000000015 0.71850000000000014 0.73550000000000015 0.8015000000000001 -0.50249999999999984 -1.2844999999999998 0.86050000000000015 0.78050000000000008 0.8035000000000001
decision_type=2 2 2 2 2 2 2 2 2 2 2 2 2 2 2 2 2 2 2 2 2 2 2 2 2 2 2 2 2 2
left_child=1 4 3 17 15 12 7 8 26 14 25 -11 13 -4 28 22 -10 23 -6 -13 21 -17 29 -2 -25 -7 27 -3 -5 -1
right_child=2 6 5 9 18 10 -8 -9 16 11 -12 19 -14 -15 -16 20 -18 -19 -20 -21 -22 -23 -24 24 -26 -27 -28 -29 -30 -31
leaf_value=-0.0018218447843556683 -0.0041155653780904312 -0.013992449061738122 0.009252751486168968 -0.0026156934684720533 0.00065718168330119661 0.010534546871980032 0.011484560198140604 0.012034066713282041 -0.011874620550695589 -0.020978226966974212 -0.016398299014081762 -0.015725135627914878 0.0039181870907658411 -0.0028525765855160973 -0.001462307080553083 0.0020688150791411705 0.0011429267867309292 -0.021681162311834992 0.012586306310617008 0.0024178368272259835 0.0063205463056628776 -0.014645776599645617 -0.011546035127059835 -0.0052181920834950043 -0.018060125450521596 -0.0084662642019490402 0.0078810564541175014 0.0080475810915231708 0.015065563798827284 -0.012324231408718156
leaf_count=189 58 36 90 29 327 30 934 224 68 41 98 34 526 630 203 47 164 207 65 64 74 50 370 56 261 48 483 44 68 82
internal_value=0 0.0741072 -0.0894119 -0.202172 -0.0790909 -0.00844988 0.168552 0.112513 0.0763995 -0.0268002 -0.192884 -0.17842 0.0176018 -0.0267882 0.0434503 -0.142716 -0.0534512 -0.334454 0.0527045 -0.0775333 -0.0195712 -0.130939 -0.175568 -0.279713 -0.31583 -0.0231652 0.129908 -0.0374086 0.195588 -0.0999938
internal_count=5600 3157 2443 1021 1204 1422 1953 1019 795 439 176 139 1246 720 300 812 232 582 392 98 171 97 641 375 317 78 563 80 97 271
shrinkage=0.05


Tree=3
num_leaves=31
num_cat=0
split_feature=25 26 27 25 25 25 26 24 22 27 5 22 27 27 3 5 25 3 5 22 17 21 6 4 25 13 27 27 24 21
split_gain=51.0898 36.3911 29.5248 11.8238 10.7494 9.78757 7.53824 7.19914 13.948 6.73145 6.48817 6.0235 6.14041 6.02218 5.64287 5.38636 4.28526 3.91247 3.6847 3.48621 3.2795 3.09359 3.02598 2.86807 3.41042 2.69356 3.12131 2.60438 2.5753 2.57191
threshold=1.0565000000000002 0.78050000000000008 0.90450000000000019 0.6785000000000001 1.4915 0.62350000000000005 0.86950000000000016 1.0065000000000002 0.99950000000000017 0.78250000000000008 0.82550000000000001 1.0025000000000002 1.0445000000000002 0.75650000000000006 1.6740000000000002 0.91550000000000009 0.94850000000000012 1.8335000000000004 1.2445000000000002 0.73650000000000004 2.1615000000000006 1.0475000000000001 -1.2374999999999998 -0.039499999999999993 0.81350000000000011 0.96150000000000013 0.84050000000000014 0.9225000000000001 0.82250000000000012 0.86550000000000005
decision_type=2 2 2 2 2 2 2 2 2 2 2 2 2 2 2 2 2 2 2 2 2 2 2 2 2 2 2 2 2 2
left_child=1 10 3 25 11 21 9 8 -7 16 -1 12 15 22 18 -2 -5 20 -9 -17 -6 -4 -12 24 -11 26 28 -15 -3 -27
right_child=4 2 5 6 17 7 -8 14 -10 23 13 -13 -14 27 -16 19 -18 -19 -20 -21 -22 -23 -24 -25 -26 29 -28 -29 -30 -31
leaf_value=-0.0079086533997548576 -0.0089789535231918471 0.010057944059371949 -0.011954964856418331 0.014285533681390732 -0.01173099374681562 -0.014296328018491084 0.015373354016059458 0.0057560736948218429 0.0053050917208469417 0.0085785033447401873 -0.011727544730124266 0.001265237040797099 -0.015995401626741384 -0.005084044304562778 -0.003313245618616352 0.017790572345256807 -0.0028227154252141022 -0.024207597672939302 0.015584136706132155 -0.00071337022596881501 0.0038070350471470088 -0.0012283464410790691 0.0074429304167932392 0.0054944920738538112 -0.01529542007125341 -0.00096022188663482668 -0.008445374766985576 -0.024458087100224062 -0.00098965795182470078 0.015653788637031207
leaf_count=667 247 87 178 246 599 156 854 358 217 21 23 361 142 82 131 30 43 60 130 168 36 108 196 75 52 36 75 22 134 66
internal_value=0 0.0641806 0.119576 0.206349 -0.145597 0.00489686 0.252805 0.0518862 -0.0578564 0.145983 -0.101838 -0.0763402 -0.138851 0.0144961 0.118015 -0.0810755 0.2348 -0.240065 0.167484 0.0418051 -0.217002 -0.158087 0.108592 -0.0274495 -0.168552 0.0556586 0.00736648 -0.183648 0.067188 0.1958
internal_count=5600 3957 2967 1689 1643 1278 1291 992 373 437 990 948 587 323 619 445 289 695 488 198 635 286 219 148 73 398 296 104 221 102
shrinkage=0.05


Tree=4
num_leaves=31
num_cat=0
split_feature=25 26 27 25 25 25 26 24 22 27 5 22 27 27 3 5 25 3 24 17 0 25 22 5 5 6 5 11 21 5
split_gain=46.1085 32.843 26.6462 10.671 9.70137 8.83328 6.80326 6.49824 12.1909 6.07513 5.85558 5.43621 5.54172 5.43502 4.90985 4.86119 3.86744 3.531 3.16612 4.05638 3.55939 3.18483 3.14631 3.13118 2.83846 2.73094 2.70745 2.68151 2.6662 2.67921
threshold=1.0565000000000002 0.78050000000000008 0.90450000000000019 0.6785000000000001 1.4915 0.62350000000000005 0.86950000000000016 1.0185000000000002 0.99950000000000017 0.78250000000000008 0.82550000000000001 1.0025000000000002 1.0445000000000002 0.75650000000000006 1.6740000000000002 0.91550000000000009 0.94850000000000012 1.8335000000000004 1.3545000000000003 1.5825000000000002 1.1075000000000002 2.0390000000000006 0.73650000000000004 1.2445000000000002 1.5755000000000001 -1.2374999999999998 1.2105000000000001 -0.39449999999999991 1.0835000000000001 0.74150000000000016
decision_type=2 2 2 2 2 2 2 2 2 2 2 2 2 2 2 2 2 2 2 2 2 2 2 2 2 2 2 2 2 2
left_child=1 10 3 -3 11 24 9 8 -7 16 -1 12 15 25 23 -2 -5 18 20 -20 21 26 -17 -9 -4 -12 -6 -16 -10 -30
right_child=4 2 5 6 17 7 -8 14 28 -11 13 -13 -14 -15 27 22 -18 -19 19 -21 -22 -23 -24 -25 -26 -27 -28 -29 29 -31
leaf_value=-0.0075132202842961189 -0.0085300057523163709 0.0026437830198649788 -0.0094589562245434335 0.013571256974606011 -0.010460049619800167 -0.013344372144550276 0.014604686181425212 0.0055559381716332196 0.010434506614820673 -0.0013038517655553047 -0.01114116686841716 0.0012019751763740075 -0.01519563076361804 -0.0087232794899206895 0.0058249274412026774 0.016901044050852458 -0.0026815799433131549 -0.022997217451532683 -0.0082738470818315233 0.011911515006795527 -0.019388698728289456 -0.018161428938893713 -0.00067770160912048252 0.014681112638209017 0.0052160053660995085 0.0070707836701553702 0.0001484695314006372 -0.0088333417971928913 -0.014965207278728486 0.0035599129253558897
leaf_count=667 247 398 248 246 190 157 854 354 109 148 23 361 142 104 52 30 43 60 112 32 128 85 168 128 38 196 88 78 25 89
internal_value=0 0.0609716 0.113597 0.196032 -0.138317 0.00465202 0.240165 0.0492919 -0.0534212 0.138684 -0.0967457 -0.0725232 -0.131908 0.0137713 0.113068 -0.0770218 0.22306 -0.228062 -0.206152 -0.0757642 -0.244392 -0.193833 0.0397149 0.159584 -0.150183 0.103162 -0.142039 -0.0594007 0.0968667 -0.0100523
internal_count=5600 3957 2967 1689 1643 1278 1291 992 380 437 990 948 587 323 612 445 289 695 635 144 491 363 198 482 286 219 278 130 223 114
shrinkage=0.05


Tree=5
num_leaves=31
num_cat=0
split_feature=25 25 26 26 25 22 9 5 5 25 9 0 24 21 13 22 0 3 0 21 22 24 24 14 5 26 1 9 3 24
split_gain=47.2893 30.3372 18.4397 8.28013 8.01528 7.61539 7.16236 7.067 4.77193 5.65612 4.0085 3.48588 3.24438 3.18265 3.84695 3.4983 3.08209 3.0326 3.10842 2.96968 3.65529 2.71073 2.68347 2.59229 2.48855 2.63477 2.4673 2.46699 2.44789 2.43089
threshold=1.0675000000000001 0.66550000000000009 0.77650000000000008 1.0825000000000002 1.5695000000000003 1.0265000000000002 1.1375000000000002 0.85250000000000015 0.88150000000000006 0.96550000000000014 1.6925000000000001 2.2790000000000004 0.97750000000000015 0.83050000000000013 0.9405 0.70650000000000013 2.4065000000000007 0.45550000000000007 1.3615000000000002 1.2085000000000001 1.0375000000000003 1.2355000000000003 0.6705000000000001 1.2275000000000003 1.1135000000000004 0.90950000000000009 1.1045000000000003 0.8005000000000001 1.8335000000000004 2.1485000000000007
decision_type=2 2 2 2 2 2 2 2 2 2 2 2 2 2 2 2 2 2 2 2 2 2 2 2 2 2 2 2 2 2
left_child=1 6 7 8 5 12 13 23 9 19 16 -10 22 15 24 -1 -5 18 -17 20 26 -16 -2 -3 -15 -26 -4 -28 29 -6
right_child=4 2 3 10 28 -7 -8 -9 11 -11 -12 -13 -14 14 21 17 -18 -19 -20 -21 -22 -23 -24 -25 25 -27 27 -29 -30 -31
leaf_value=0.0016826361658111696 0.00080145292338870829 -0.010863523256211054 0.0089051890074527892 0.0015492585226581687 -0.011869822257386899 0.0011733103936214394 0.004352498602153909 0.0058155018065510133 0.012594765480747797 -0.0027082998359548877 0.013192127318414924 -0.0023542867928016478 -0.0042541680500862451 -0.0072393736643892419 0.0041674218807123643 0.013453344417654951 -0.01645987868309021 -0.013459372719128927 -0.013153450049105146 -0.0018650950147555427 0.016508804219109673 -0.011522566899657249 -0.012628836237467253 0.0041178089651194493 0.012195082464151914 -0.0091924088696638748 -0.0076757024441446581 0.0098532376482206238 -0.02188783383061146 0.0032702657261065079
leaf_count=62 42 231 439 478 499 351 234 116 798 138 73 41 329 424 197 23 25 255 21 65 140 32 325 33 36 24 49 34 58 28
internal_value=0 0.0532095 0.114524 0.148515 -0.149013 -0.0966285 -0.0714825 -0.0894204 0.183552 0.131434 0.0448637 0.237285 -0.157193 -0.106023 -0.0672883 -0.182527 0.0130834 -0.227354 0.0150929 0.166665 0.186692 0.0394987 -0.221837 -0.179817 -0.117814 0.0728017 0.14821 -0.00990346 -0.242768 -0.221308
internal_count=5600 3968 2660 2280 1632 1047 1308 380 1704 865 576 839 696 1074 713 361 503 299 44 727 662 229 367 264 484 60 522 83 585 527
shrinkage=0.05


Tree=6
num_leaves=31
num_cat=0
split_feature=27 26 22 24 5 5 27 22 22 0 27 27 26 10 27 22 24 1 6 21 24 22 27 22 22 9 20 24 10 0
split_gain=27.6807 28.631 13.9739 14.7901 7.22958 6.5073 4.81383 4.48603 4.03531 2.97391 2.96624 2.91087 4.29021 2.85617 2.81065 3.44899 2.80243 2.74126 2.8399 2.69162 3.25172 2.94644 2.55127 2.53245 2.70575 2.50415 2.50399 3.55197 2.41736 2.43501
threshold=0.90650000000000008 0.81150000000000011 1.0325000000000002 1.0935000000000004 0.88150000000000006 0.82050000000000012 1.0105000000000002 0.75750000000000017 1.0605000000000002 1.5645000000000002 1.0885000000000002 0.82250000000000012 0.88850000000000018 -1.0664999999999998 0.99050000000000005 0.87450000000000017 1.0475000000000001 1.7720000000000002 1.7735000000000003 0.91250000000000009 0.74850000000000017 0.82050000000000012 0.72650000000000003 0.70650000000000013 0.95150000000000012 1.2125000000000001 1.0000000180025095e-35 1.2565000000000002 0.65350000000000008 1.1775000000000002
decision_type=2 2 2 2 2 2 2 2 2 2 2 2 2 2 2 2 2 2 2 2 2 2 2 2 2 2 2 2 2 2
left_child=1 5 3 10 8 9 25 -5 11 -1 19 13 -13 -3 15 -9 -14 18 -8 -2 -21 -22 -7 -6 26 -4 27 -25 29 -24
right_child=2 4 6 7 23 22 17 14 -10 -11 -12 12 16 -15 -16 -17 -18 -19 -20 20 21 -23 28 24 -26 -27 -28 -29 -30 -31
leaf_value=-0.006702665727988423 -0.013912209206157261 -0.0045668211850253019 0.0029096662674261177 0.0070986776500940318 0.016815094705496993 0.0052551314793527135 -0.0020892077833610406 0.01018550971057266 0.010671405887311223 0.0041452203323875652 -0.017553585339412998 -0.012606353470137423 -0.0033875116659689321 0.0058681099393249102 -0.0066221434333660067 -0.0043183386064412303 0.0077963723076714415 -0.015636532476970128 0.01045134918143352 0.011110024094581604 0.0076035633035328081 -0.012155435823258899 -0.0012977961344378336 0.0016356548207635093 0.011590789623845084 0.014138562517131076 0.011387890476632764 0.018752965857000911 0.0064639780359963582 -0.016641865052827977
leaf_count=749 234 77 184 100 107 240 759 64 163 69 247 71 129 442 412 114 99 35 48 25 23 105 70 279 416 68 148 34 48 41
internal_value=0 0.0558498 -0.08609 -0.155193 0.1305 -0.0646826 -0.00245926 -0.0538804 0.0697513 -0.115752 -0.265454 0.0411213 -0.0374715 0.0863992 -0.087076 0.0179306 0.029373 -0.0387488 -0.026866 -0.210809 -0.107672 -0.1721 0.0400171 0.191064 0.173344 0.118794 0.120579 0.0699009 -0.0582253 -0.139309
internal_count=5600 3182 2418 1324 1965 1217 1094 690 981 818 634 818 299 519 590 178 228 842 807 387 153 128 399 984 877 252 461 313 159 111
shrinkage=0.05


Tree=7
num_leaves=31
num_cat=0
split_feature=25 25 26 27 25 9 5 26 25 24 0 5 24 25 27 3 1 13 10 5 3 27 4 13 3 4 5 24 14 23
split_gain=41.657 26.3848 15.8368 13.9322 6.78488 6.21471 6.00274 5.31748 6.50199 4.64717 4.25526 4.36817 4.02785 3.59652 3.35435 3.20306 3.00722 2.92458 2.85424 2.77804 2.6869 2.48198 2.55016 2.38736 2.54574 2.88548 2.39945 2.38604 2.33597 2.33065
threshold=1.0675000000000001 0.66550000000000009 0.77650000000000008 0.90650000000000008 1.5585000000000002 1.1375000000000002 0.85250000000000015 0.86350000000000016 0.89550000000000007 0.97750000000000015 1.6975000000000002 1.2635000000000003 0.94450000000000012 0.96950000000000014 0.93850000000000011 1.9805000000000004 0.5495000000000001 1.3135000000000003 -0.47449999999999992 0.88450000000000017 1.7525000000000002 0.79950000000000021 -0.13099999999999998 0.9405 0.34850000000000003 -0.56549999999999989 1.3365000000000002 0.6755000000000001 1.2275000000000003 1.1385000000000003
decision_type=2 2 2 2 2 2 2 2 2 2 2 2 2 2 2 2 2 2 2 2 2 2 2 2 2 2 2 2 2 2
left_child=1 5 6 7 9 20 28 8 21 14 11 13 -12 -5 19 -13 -14 18 -11 27 23 -4 -23 24 25 -1 -26 -2 -3 -25
right_child=4 2 3 10 -6 -7 -8 -9 -10 17 12 15 16 -15 -16 -17 -18 -19 -20 -21 -22 22 -24 29 26 -27 -28 -29 -30 -31
leaf_value=0.014677032972535781 0.0057119672298431394 -0.010027033477634579 0.012218331965880517 0.0037836219295697016 -0.011194011349088914 0.0040766765482914752 0.005396655394599356 0.012421220914769783 -0.003231642207653403 0.0024801042163744569 -0.018524692120940187 0.012940940063401877 0.0056268342172921598 -0.0051121077395432837 -0.013345804390657016 -0.0041147035179716169 -0.014138196739885542 0.0048164797376613229 -0.0067856910925374256 0.00050992701979849842 -0.012395152973907966 -0.0098380669951438904 0.01078955795495741 -0.002131536956053661 -0.0074779993176252585 -0.0054340228793166934 0.0075115790856736045 -0.010819370464183563 0.0041943792140845095 0.010601448906319482
leaf_count=31 25 231 234 459 603 234 116 901 139 128 43 166 67 151 181 33 27 147 237 139 108 29 31 249 574 42 28 172 33 42
internal_value=0 0.0501468 0.107328 0.138829 -0.139652 -0.0661394 -0.0816746 0.204656 0.113583 -0.090293 0.0460015 0.0736011 -0.116977 0.0316313 -0.15717 0.202252 -0.00100711 -0.022763 -0.0707263 -0.0980508 -0.0983139 0.197841 0.0163908 -0.0815897 -0.114231 0.0621258 -0.135616 -0.17443 -0.164987 -0.00587573
internal_count=5600 3968 2660 2280 1632 1308 380 1334 433 1029 946 809 137 610 517 199 94 512 365 336 1074 294 60 966 675 73 602 197 264 291
shrinkage=0.05


Tree=8
num_leaves=31
num_cat=0
split_feature=25 26 27 5 22 25 25 5 27 0 9 22 22 27 25 21 25 25 18 6 9 25 21 25 9 15 21 26 19 22
split_gain=37.6884 18.1982 21.239 7.63789 7.32723 5.66793 6.00447 5.23316 4.62417 4.31401 3.64523 3.44457 3.86355 3.84506 3.37549 3.16306 2.91222 5.38171 3.20324 3.0499 2.81614 2.7142 2.69126 3.82317 2.63419 2.58613 3.02804 3.05698 2.57201 2.53933
threshold=1.2450000000000003 0.8055000000000001 0.90650000000000008 0.88150000000000006 1.0405000000000002 1.0975000000000001 0.6695000000000001 0.78650000000000009 0.83850000000000013 1.0375000000000003 1.1035000000000001 0.71850000000000014 1.0445000000000002 1.0705000000000002 1.9405000000000003 1.3625000000000003 0.63450000000000017 0.97650000000000003 1.2925000000000002 -0.94249999999999989 0.76650000000000007 0.94550000000000012 1.0625000000000002 0.99250000000000005 0.99650000000000005 -1.4779999999999998 1.0925000000000002 1.0065000000000002 0.028500000000000001 0.95950000000000013
decision_type=2 2 2 2 2 2 2 2 2 2 2 2 2 2 2 2 2 2 2 2 2 2 2 2 2 2 2 2 2 2
left_child=1 7 3 5 9 6 -3 21 24 16 20 -2 13 25 -14 -12 -4 18 19 -18 -6 -1 23 -8 -9 -13 -27 -28 -19 -10
right_child=11 2 4 -5 10 -7 22 8 29 -11 15 12 14 -15 -16 -17 17 28 -20 -21 -22 -23 -24 -25 -26 26 27 -29 -30 -31
leaf_value=-0.004996249470445845 0.0059927002713084229 -0.0024085147052325985 -0.0084688164524196353 0.011153367701083867 0.0044051386563494655 -0.0074488937026924553 0.010791647494808446 0.00016947153114503432 -0.018381693078712982 -0.0081327187548200768 0.012866927928158215 0.0069425069368802585 -0.0017691568496092311 -0.016061647440872941 -0.011791715110705151 0.0026055428716871476 -0.0069921769972505245 -0.012725273489135587 -0.012920888438820839 0.010500671078929795 -0.0037983501081093117 -0.015145378957872522 -0.0012352631986141205 -0.0010579594517055946 0.0089526522571478431 -0.010731972088205054 0.017571139931678772 -0.0094382575289769614 3.600446290748064e-05 -3.3564188263633035e-05
leaf_count=675 40 176 97 804 202 90 492 279 44 332 140 26 265 255 123 162 29 73 20 177 217 73 70 79 123 376 20 22 86 33
internal_value=0 0.0362711 0.0754871 0.152103 -0.00991394 0.0891983 0.115436 -0.0674739 0.014136 -0.0749376 0.0634969 -0.168343 -0.178949 -0.223366 -0.0989282 0.14725 -0.0145185 0.0244976 0.123666 0.160762 0.00313108 -0.119735 0.160357 0.183044 0.0571373 -0.167159 -0.186193 0.0684672 -0.116459 -0.210364
internal_count=5600 4473 3246 1711 1535 907 817 1227 479 814 721 1127 1087 699 388 302 482 385 226 206 419 748 641 571 402 444 418 42 159 77
shrinkage=0.05



feature importances:
Column_25=39
Column_22=32
Column_5=30
Column_27=30
Column_26=27
Column_24=27
Column_3=16
Column_9=10
Column_21=9
Column_0=8
Column_13=8
Column_4=6
Column_19=5
Column_1=4
Column_6=4
Column_18=3
Column_10=3
Column_17=2
Column_23=2
Column_14=2
Column_20=1
Column_15=1
Column_11=1

pandas_categorical:null
